{"sizes":[1,5,10,5,2],"layers":[{"time":{}},{"0":{"bias":0.13345997035503387,"weights":{"time":0.035634394735097885}},"1":{"bias":-0.048979368060827255,"weights":{"time":-0.19971929490566254}},"2":{"bias":-0.0905543714761734,"weights":{"time":-0.053059402853250504}},"3":{"bias":-0.01521837804466486,"weights":{"time":-0.0411914698779583}},"4":{"bias":-0.15264956653118134,"weights":{"time":-0.07673513144254684}}},{"0":{"bias":-0.14246036112308502,"weights":{"0":0.17384827136993408,"1":-0.02308582328259945,"2":-0.042123254388570786,"3":-0.030422093346714973,"4":-0.1610826551914215}},"1":{"bias":-0.10118206590414047,"weights":{"0":-0.15192121267318726,"1":-0.054076842963695526,"2":-0.044620539993047714,"3":-0.13562193512916565,"4":-0.17162372171878815}},"2":{"bias":0.12523239850997925,"weights":{"0":-0.18742559850215912,"1":-0.1327812522649765,"2":-0.16958558559417725,"3":-0.10433393716812134,"4":-0.014320090413093567}},"3":{"bias":0.0047226096503436565,"weights":{"0":-0.10216980427503586,"1":0.061770081520080566,"2":-0.17054954171180725,"3":-0.18224060535430908,"4":-0.14198623597621918}},"4":{"bias":0.09543611854314804,"weights":{"0":0.17452096939086914,"1":-0.037670254707336426,"2":0.1785012185573578,"3":0.14190487563610077,"4":0.007589568849653006}},"5":{"bias":0.14437492191791534,"weights":{"0":-0.0074843051843345165,"1":0.11442657560110092,"2":0.011499655432999134,"3":0.033546943217515945,"4":0.02573045715689659}},"6":{"bias":0.17536287009716034,"weights":{"0":0.09429340809583664,"1":0.0716908648610115,"2":-0.11980801075696945,"3":0.17913590371608734,"4":-0.05945678427815437}},"7":{"bias":-0.08964934945106506,"weights":{"0":-0.19407203793525696,"1":0.19806039333343506,"2":0.043778661638498306,"3":0.011506245471537113,"4":0.09277110546827316}},"8":{"bias":-0.0627213716506958,"weights":{"0":-0.0475592240691185,"1":-0.04098912701010704,"2":0.07985403388738632,"3":-0.14281746745109558,"4":0.014513878151774406}},"9":{"bias":0.08483780175447464,"weights":{"0":0.06610330194234848,"1":0.05604134872555733,"2":0.03184623643755913,"3":0.09226595610380173,"4":-0.03590383753180504}}},{"0":{"bias":-0.1600305289030075,"weights":{"0":-0.14075756072998047,"1":-0.05778749659657478,"2":0.012396348640322685,"3":-0.09111639112234116,"4":-0.07964445650577545,"5":-0.12796609103679657,"6":-0.11932477355003357,"7":0.13305437564849854,"8":-0.1657078117132187,"9":0.0838247686624527}},"1":{"bias":0.04435767978429794,"weights":{"0":0.10725031793117523,"1":-0.04175693914294243,"2":0.09004498273134232,"3":-0.1234525516629219,"4":0.009270161390304565,"5":0.1183624342083931,"6":0.03517638146877289,"7":-0.06918559223413467,"8":-0.01986461877822876,"9":-0.18156303465366364}},"2":{"bias":-0.15321916341781616,"weights":{"0":-0.009591705165803432,"1":0.0544714517891407,"2":-0.14844311773777008,"3":0.01423084456473589,"4":0.11127033084630966,"5":-0.1553935706615448,"6":-0.06992769986391068,"7":0.00731047336012125,"8":0.1914055347442627,"9":0.15557722747325897}},"3":{"bias":-0.09853418171405792,"weights":{"0":0.04711919277906418,"1":-0.16657134890556335,"2":-0.004757979419082403,"3":0.11738736182451248,"4":0.09516195207834244,"5":-0.1827688366174698,"6":0.04154687002301216,"7":0.23274242877960205,"8":-0.11030015349388123,"9":-0.04082106053829193}},"4":{"bias":-0.026623910292983055,"weights":{"0":0.16509176790714264,"1":-0.048915036022663116,"2":0.007817987352609634,"3":-0.02490835078060627,"4":0.13125447928905487,"5":-0.18691785633563995,"6":0.12616024911403656,"7":-0.05832461640238762,"8":-0.20360064506530762,"9":-0.04726281762123108}}},{"baseHue":{"bias":0.5417484045028687,"weights":{"0":-0.4047383964061737,"1":0.037966154515743256,"2":-0.2232103794813156,"3":-0.05420796573162079,"4":-0.000048046982556115836}},"baseSat":{"bias":0.43481194972991943,"weights":{"0":0.00568193756043911,"1":0.21248263120651245,"2":-0.2757956385612488,"3":-0.0655808225274086,"4":-0.058702629059553146}}}],"outputLookup":true,"inputLookup":true,"activation":"tanh","trainOpts":{"iterations":5000,"errorThresh":0.01,"log":false,"logPeriod":10,"learningRate":0.99999,"momentum":0.5,"callbackPeriod":10,"timeout":100,"beta1":0.9,"beta2":0.999,"epsilon":1e-8}}