{"sizes":[1,5,10,5,25],"layers":[{"time":{}},{"0":{"bias":-1.600472331047058,"weights":{"time":4.51902437210083}},"1":{"bias":1.9303122758865356,"weights":{"time":-4.963357925415039}},"2":{"bias":-2.412454843521118,"weights":{"time":6.93239688873291}},"3":{"bias":0.9806976318359375,"weights":{"time":-1.0207759141921997}},"4":{"bias":-2.857595205307007,"weights":{"time":7.962683200836182}}},{"0":{"bias":-1.361488699913025,"weights":{"0":1.3034523725509644,"1":-1.9393150806427002,"2":2.163327932357788,"3":-0.7788599729537964,"4":2.5327723026275635}},"1":{"bias":-2.2733845710754395,"weights":{"0":1.4314441680908203,"1":-3.128251075744629,"2":2.684203624725342,"3":-1.225719928741455,"4":3.418858528137207}},"2":{"bias":-0.3213288486003876,"weights":{"0":0.9608781337738037,"1":-0.9469114542007446,"2":1.7295118570327759,"3":-0.032038696110248566,"4":1.695631742477417}},"3":{"bias":-0.10636430233716965,"weights":{"0":1.0730901956558228,"1":-0.7614743709564209,"2":1.5774325132369995,"3":0.0014852723106741905,"4":1.8297802209854126}},"4":{"bias":-0.9352563619613647,"weights":{"0":1.0982167720794678,"1":-1.677536964416504,"2":1.8915190696716309,"3":-0.37743252515792847,"4":2.425417184829712}},"5":{"bias":-1.393699049949646,"weights":{"0":0.9725335836410522,"1":-1.7687474489212036,"2":1.9621859788894653,"3":-0.5726425647735596,"4":2.23846697807312}},"6":{"bias":-2.8530707359313965,"weights":{"0":1.7514431476593018,"1":-3.508781671524048,"2":3.109090805053711,"3":-1.577894687652588,"4":3.7284300327301025}},"7":{"bias":-2.2006518840789795,"weights":{"0":1.4049532413482666,"1":-2.7945268154144287,"2":2.686220645904541,"3":-1.3191193342208862,"4":3.2744877338409424}},"8":{"bias":-1.5814743041992188,"weights":{"0":1.26002037525177,"1":-1.984571099281311,"2":2.1097958087921143,"3":-0.7573218941688538,"4":2.792997360229492}},"9":{"bias":-0.26818495988845825,"weights":{"0":1.142543077468872,"1":-0.9060452580451965,"2":1.7605373859405518,"3":0.1481432020664215,"4":1.813441276550293}}},{"0":{"bias":3.555302143096924,"weights":{"0":-2.288062334060669,"1":-2.4020118713378906,"2":-0.643688976764679,"3":-0.3871312737464905,"4":-1.9040521383285522,"5":-1.7564475536346436,"6":-2.3689510822296143,"7":-2.2264022827148438,"8":-2.496638298034668,"9":-0.5182999968528748}},"1":{"bias":1.843511700630188,"weights":{"0":-0.8896615505218506,"1":-2.034173011779785,"2":0.42881444096565247,"3":0.6990307569503784,"4":-0.37555766105651855,"5":-0.7032550573348999,"6":-2.5857908725738525,"7":-1.9325752258300781,"8":-0.9739859104156494,"9":0.7136180996894836}},"2":{"bias":2.54945969581604,"weights":{"0":-1.9803106784820557,"1":-1.9897011518478394,"2":-1.4264944791793823,"3":-1.2408499717712402,"4":-1.9883527755737305,"5":-1.5453495979309082,"6":-2.064161777496338,"7":-2.1513450145721436,"8":-1.9114142656326294,"9":-1.4223926067352295}},"3":{"bias":3.5158615112304688,"weights":{"0":-1.367843508720398,"1":-2.6664512157440186,"2":0.36744555830955505,"3":0.6532667875289917,"4":-0.7270644307136536,"5":-1.2094275951385498,"6":-2.7755508422851562,"7":-2.458066940307617,"8":-1.4540979862213135,"9":0.6653255224227905}},"4":{"bias":5.917283535003662,"weights":{"0":-1.0829267501831055,"1":-3.3091797828674316,"2":1.2542332410812378,"3":1.6866250038146973,"4":-0.018171677365899086,"5":-0.9914414286613464,"6":-4.545130252838135,"7":-3.041010618209839,"8":-1.4596936702728271,"9":1.647907018661499}}},{"idleSpeed":{"bias":-0.43565765023231506,"weights":{"0":-1.7546422481536865,"1":1.5004245042800903,"2":-1.7288148403167725,"3":1.5985945463180542,"4":0.30860626697540283}},"minIdleBri":{"bias":-2.016813039779663,"weights":{"0":-1.1574764251708984,"1":0.5605204701423645,"2":-1.368118405342102,"3":0.24807964265346527,"4":1.2975189685821533}},"maxIdleBri":{"bias":-1.8110021352767944,"weights":{"0":-1.4253100156784058,"1":-0.8721070885658264,"2":-0.9549681544303894,"3":-1.8052927255630493,"4":3.699312448501587}},"minIdleCol":{"bias":0.9404302835464478,"weights":{"0":-2.175840377807617,"1":0.28661996126174927,"2":-1.3601433038711548,"3":0.2213616669178009,"4":1.2514212131500244}},"maxIdleCol":{"bias":1.9288824796676636,"weights":{"0":-0.9795888066291809,"1":0.6888426542282104,"2":-0.7603639960289001,"3":0.702915370464325,"4":-0.12247525155544281}},"deUnSpeed":{"bias":-0.9342178702354431,"weights":{"0":-1.877181053161621,"1":0.4668036103248596,"2":-1.3066649436950684,"3":0.26892992854118347,"4":1.150241732597351}},"minDeUnBri":{"bias":-0.6219316124916077,"weights":{"0":-0.5610507130622864,"1":0.9068301320075989,"2":0.7328016757965088,"3":1.9413455724716187,"4":-2.063657760620117}},"maxDeUnBri":{"bias":-0.9545095562934875,"weights":{"0":0.9236122369766235,"1":-0.5602596402168274,"2":1.2108566761016846,"3":-1.0937938690185547,"4":1.264053463935852}},"minDeUnCol":{"bias":0.09188639372587204,"weights":{"0":-0.3327605426311493,"1":-0.47438886761665344,"2":-0.5582358837127686,"3":-1.2033791542053223,"4":3.393234968185425}},"maxDeUnCol":{"bias":-0.2746071219444275,"weights":{"0":-2.25382924079895,"1":1.267643928527832,"2":-2.1920087337493896,"3":1.404778003692627,"4":1.2271662950515747}},"dePlSpeed":{"bias":-0.4835435152053833,"weights":{"0":-0.045657698065042496,"1":-0.5986157059669495,"2":-0.4101274311542511,"3":-0.9566500186920166,"4":2.4846460819244385}},"minDePlBri":{"bias":1.2470647096633911,"weights":{"0":1.8341950178146362,"1":-1.0593913793563843,"2":0.6901751160621643,"3":-1.2461202144622803,"4":-0.15573753416538239}},"maxDePlBri":{"bias":1.8529086112976074,"weights":{"0":-0.5283659100532532,"1":-0.7648542523384094,"2":-0.8360008597373962,"3":-1.3953688144683838,"4":1.204590916633606}},"minDePlCol":{"bias":0.9491323828697205,"weights":{"0":0.6225652694702148,"1":-0.6063499450683594,"2":0.6815991401672363,"3":-0.6299066543579102,"4":-0.6032784581184387}},"maxDePlCol":{"bias":1.0011478662490845,"weights":{"0":1.2073127031326294,"1":-0.9710758328437805,"2":2.2445857524871826,"3":-1.2929515838623047,"4":1.0922309160232544}},"acUnSpeed":{"bias":0.026022285223007202,"weights":{"0":-0.010307046584784985,"1":0.08278492838144302,"2":-0.16876854002475739,"3":0.27036482095718384,"4":-1.1617034673690796}},"minAcUnBri":{"bias":1.592758059501648,"weights":{"0":-0.5401703119277954,"1":0.45055463910102844,"2":-0.42223408818244934,"3":0.4388990104198456,"4":0.2828945815563202}},"maxAcUnBri":{"bias":-1.9697853326797485,"weights":{"0":-1.094336986541748,"1":-0.8064454197883606,"2":-1.1721079349517822,"3":-1.6301180124282837,"4":4.055362224578857}},"minAcUnCol":{"bias":0.12340214103460312,"weights":{"0":-0.11096446216106415,"1":0.03405214101076126,"2":-0.43863818049430847,"3":0.3184114098548889,"4":-0.763171911239624}},"maxAcUnCol":{"bias":-0.31316477060317993,"weights":{"0":1.1810839176177979,"1":-0.347360223531723,"2":-0.3331996500492096,"3":-0.7416621446609497,"4":0.35553428530693054}},"acPlSpeed":{"bias":0.06319735944271088,"weights":{"0":0.4275537431240082,"1":-0.528671383857727,"2":-0.05558578670024872,"3":-0.4740535616874695,"4":-0.6434649229049683}},"minAcPlBri":{"bias":0.7771409153938293,"weights":{"0":-2.331357717514038,"1":0.8250173926353455,"2":-1.801058053970337,"3":1.6578587293624878,"4":-0.8769468069076538}},"maxAcPlBri":{"bias":0.13543078303337097,"weights":{"0":1.7918510437011719,"1":-1.034942626953125,"2":1.1560282707214355,"3":-1.307472825050354,"4":0.4512755870819092}},"minAcPlCol":{"bias":0.6101049780845642,"weights":{"0":-0.36831605434417725,"1":-0.7205709218978882,"2":0.47674763202667236,"3":-1.8190622329711914,"4":3.831804037094116}},"maxAcPlCol":{"bias":-0.701109766960144,"weights":{"0":2.4791879653930664,"1":0.8058956861495972,"2":2.038276195526123,"3":1.168473482131958,"4":-2.2597835063934326}}}],"outputLookup":true,"inputLookup":true,"activation":"sigmoid","trainOpts":{"iterations":5000,"errorThresh":0.001,"log":false,"logPeriod":10,"learningRate":0.1,"momentum":0.1,"callbackPeriod":10,"beta1":0.9,"beta2":0.999,"epsilon":1e-8}}