{"sizes":[2,5,10,5,1],"layers":[{"baseHue":{},"baseSat":{}},{"0":{"bias":0.12351441383361816,"weights":{"baseHue":0.04727722331881523,"baseSat":0.20284749567508698}},"1":{"bias":0.13489076495170593,"weights":{"baseHue":-0.04138697311282158,"baseSat":0.1876307874917984}},"2":{"bias":-0.18075019121170044,"weights":{"baseHue":0.03825192153453827,"baseSat":-0.006969762034714222}},"3":{"bias":0.14554689824581146,"weights":{"baseHue":0.09381449222564697,"baseSat":0.17380034923553467}},"4":{"bias":0.1865415722131729,"weights":{"baseHue":-0.017917420715093613,"baseSat":-0.07275082170963287}}},{"0":{"bias":-0.1854982078075409,"weights":{"0":-0.10582909733057022,"1":0.07938193529844284,"2":-0.00021269764692988247,"3":-0.1964210420846939,"4":0.09339532256126404}},"1":{"bias":-0.05160060524940491,"weights":{"0":-0.03951537236571312,"1":0.07182618230581284,"2":-0.19487425684928894,"3":0.18641254305839539,"4":0.0673748329281807}},"2":{"bias":-0.12448027729988098,"weights":{"0":0.11402489244937897,"1":-0.16521728038787842,"2":0.17345236241817474,"3":0.0323190800845623,"4":0.16162781417369843}},"3":{"bias":0.185816690325737,"weights":{"0":0.18848709762096405,"1":-0.08986879140138626,"2":0.16910704970359802,"3":-0.06443489342927933,"4":-0.12435721606016159}},"4":{"bias":0.15302744507789612,"weights":{"0":0.007576182950288057,"1":-0.19252102077007294,"2":0.1603088229894638,"3":0.1385701447725296,"4":-0.04684716835618019}},"5":{"bias":-0.17468872666358948,"weights":{"0":-0.04746665060520172,"1":0.14168237149715424,"2":0.12401395291090012,"3":0.15437127649784088,"4":0.20195415616035461}},"6":{"bias":0.044585518538951874,"weights":{"0":0.04264170303940773,"1":0.12941043078899384,"2":-0.06366127729415894,"3":0.16447199881076813,"4":0.008114811964333057}},"7":{"bias":-0.07797504961490631,"weights":{"0":0.0007562931859865785,"1":-0.13353022933006287,"2":0.1434112936258316,"3":0.19731689989566803,"4":-0.1717120110988617}},"8":{"bias":-0.17999450862407684,"weights":{"0":-0.12196237593889236,"1":-0.20149099826812744,"2":-0.0019063601503148675,"3":-0.06657702475786209,"4":-0.06314561516046524}},"9":{"bias":-0.15777263045310974,"weights":{"0":0.11706361919641495,"1":0.03329823538661003,"2":-0.10847912728786469,"3":-0.18438474833965302,"4":0.06056150421500206}}},{"0":{"bias":0.2130839079618454,"weights":{"0":0.087986521422863,"1":0.011327284388244152,"2":-0.17974305152893066,"3":-0.17322829365730286,"4":-0.026761358603835106,"5":-0.08554831147193909,"6":-0.07662898302078247,"7":-0.20090657472610474,"8":-0.05011590197682381,"9":0.15175826847553253}},"1":{"bias":0.06245219707489014,"weights":{"0":-0.20148879289627075,"1":0.12609286606311798,"2":0.12843993306159973,"3":0.01732086017727852,"4":0.1396770030260086,"5":0.1607794165611267,"6":0.060762785375118256,"7":0.12212841957807541,"8":0.12087593227624893,"9":0.06852269172668457}},"2":{"bias":-0.2092720866203308,"weights":{"0":-0.07916959375143051,"1":0.16898325085639954,"2":0.1876469850540161,"3":0.025690166279673576,"4":-0.08210258185863495,"5":-0.016628826037049294,"6":-0.13860629498958588,"7":-0.11530638486146927,"8":0.184111088514328,"9":0.10877321660518646}},"3":{"bias":0.12189604341983795,"weights":{"0":-0.05271335691213608,"1":0.00592281948775053,"2":0.03343784809112549,"3":0.13913577795028687,"4":-0.17219297587871552,"5":0.050070926547050476,"6":-0.013485812582075596,"7":0.06722624599933624,"8":-0.04053426906466484,"9":0.09287329018115997}},"4":{"bias":-0.3722795248031616,"weights":{"0":0.11454521864652634,"1":-0.06797478348016739,"2":0.07031237334012985,"3":0.04964223504066467,"4":-0.17094115912914276,"5":0.04725830629467964,"6":-0.05695048347115517,"7":0.18407759070396423,"8":0.24262475967407227,"9":-0.09958748519420624}}},{"time":{"bias":0.7829239368438721,"weights":{"0":0.11606307327747345,"1":0.15146781504154205,"2":-0.28971168398857117,"3":0.1777784824371338,"4":-0.44328105449676514}}}],"outputLookup":true,"inputLookup":true,"activation":"tanh","trainOpts":{"iterations":5000,"errorThresh":0.0001,"log":true,"logPeriod":10,"learningRate":0.1,"momentum":0.1,"callbackPeriod":10,"timeout":100,"beta1":0.9,"beta2":0.999,"epsilon":1e-8}}