{"sizes":[1,5,10,5,2],"layers":[{"time":{}},{"0":{"bias":-0.2286478579044342,"weights":{"time":0.9668664336204529}},"1":{"bias":-0.16218209266662598,"weights":{"time":-0.5776267051696777}},"2":{"bias":0.22284530103206635,"weights":{"time":-0.36598271131515503}},"3":{"bias":0.20926843583583832,"weights":{"time":-0.8764516711235046}},"4":{"bias":2.177778720855713,"weights":{"time":-5.915839672088623}}},{"0":{"bias":0.008791188709437847,"weights":{"0":-0.011398915201425552,"1":-0.03151809424161911,"2":-0.06438048928976059,"3":0.058041829615831375,"4":0.017938867211341858}},"1":{"bias":-0.012518666684627533,"weights":{"0":0.09137227386236191,"1":0.00294584222137928,"2":0.10844743251800537,"3":-0.06881793588399887,"4":0.08930245041847229}},"2":{"bias":0.10465507209300995,"weights":{"0":-0.062112946063280106,"1":0.21578450500965118,"2":-0.058776892721652985,"3":0.06321054697036743,"4":-0.013204759918153286}},"3":{"bias":0.09181928634643555,"weights":{"0":-0.11283137649297714,"1":0.22654655575752258,"2":-0.031939394772052765,"3":-0.15294785797595978,"4":0.08017036318778992}},"4":{"bias":-0.029376724734902382,"weights":{"0":-0.03499589487910271,"1":0.007770183961838484,"2":-0.14112761616706848,"3":0.029208729043602943,"4":-0.14508415758609772}},"5":{"bias":-0.06706130504608154,"weights":{"0":-0.03224365785717964,"1":-0.06850159913301468,"2":0.052828822284936905,"3":-0.11326517164707184,"4":-0.08328960835933685}},"6":{"bias":0.6516512036323547,"weights":{"0":0.8188884258270264,"1":-0.6351655125617981,"2":-0.2850321829319,"3":-0.7295175194740295,"4":1.5949053764343262}},"7":{"bias":0.11524667590856552,"weights":{"0":-0.01923259161412716,"1":0.31553778052330017,"2":-0.04980649799108505,"3":0.075287364423275,"4":-0.04677537456154823}},"8":{"bias":0.03012341819703579,"weights":{"0":0.08221380412578583,"1":0.028124047443270683,"2":-0.04598335921764374,"3":0.16557879745960236,"4":0.012455771677196026}},"9":{"bias":-0.004921378567814827,"weights":{"0":-0.012361830100417137,"1":-0.05229538306593895,"2":0.11908354610204697,"3":-0.02276073582470417,"4":0.04417909309267998}}},{"0":{"bias":0.06450954079627991,"weights":{"0":0.05750551447272301,"1":0.030499646440148354,"2":-0.006427417974919081,"3":-0.045775603502988815,"4":-0.29849252104759216,"5":-0.1685723215341568,"6":-0.16295653581619263,"7":-0.17949029803276062,"8":0.012238138355314732,"9":0.14946815371513367}},"1":{"bias":-0.15508462488651276,"weights":{"0":-0.027377843856811523,"1":0.0887761116027832,"2":-0.017730196937918663,"3":0.01242211926728487,"4":-0.08677580207586288,"5":0.00524564366787672,"6":0.309884637594223,"7":-0.053372420370578766,"8":0.028712304309010506,"9":0.08394350856542587}},"2":{"bias":-0.0425349585711956,"weights":{"0":0.17780660092830658,"1":-0.23208574950695038,"2":-0.04460052400827408,"3":-0.09042803943157196,"4":-0.025988135486841202,"5":-0.14227153360843658,"6":0.08387694507837296,"7":0.024746544659137726,"8":-0.08404242247343063,"9":-0.06508836895227432}},"3":{"bias":0.01920376718044281,"weights":{"0":-0.011409824714064598,"1":0.11986540257930756,"2":-0.11094415932893753,"3":0.03215273469686508,"4":-0.0030390957836061716,"5":0.17352835834026337,"6":-0.03895719349384308,"7":0.14794883131980896,"8":0.07528197765350342,"9":0.24148254096508026}},"4":{"bias":0.0010655606165528297,"weights":{"0":-0.012347163632512093,"1":0.09164939075708389,"2":0.10675212740898132,"3":0.26986488699913025,"4":0.03295070677995682,"5":-0.05916856229305267,"6":0.010413046926259995,"7":0.21102800965309143,"8":0.040998272597789764,"9":-0.09492320567369461}}},{"baseHue":{"bias":0.6572710871696472,"weights":{"0":-0.07599497586488724,"1":0.011907600797712803,"2":0.004922825843095779,"3":-0.005212988238781691,"4":-0.05538507550954819}},"baseSat":{"bias":1.0844461917877197,"weights":{"0":0.019154606387019157,"1":-0.06611022353172302,"2":-0.017049837857484818,"3":0.007208151742815971,"4":-0.009583620354533195}}}],"outputLookup":true,"inputLookup":true,"activation":"tanh","trainOpts":{"iterations":5000,"errorThresh":0.01,"log":false,"logPeriod":10,"learningRate":0.99999,"momentum":0.5,"callbackPeriod":10,"timeout":200,"beta1":0.9,"beta2":0.999,"epsilon":1e-8}}